<?xml version="1.0"?>
<opencv_storage>
<cascade>
  <stageType>BOOST</stageType>
  <featureType>LBP</featureType>
  <height>25</height>
  <width>25</width>
  <stageParams>
    <boostType>GAB</boostType>
    <minHitRate>9.9500000476837158e-01</minHitRate>
    <maxFalseAlarm>5.0000000000000000e-01</maxFalseAlarm>
    <weightTrimRate>9.4999999999999996e-01</weightTrimRate>
    <maxDepth>1</maxDepth>
    <maxWeakCount>100</maxWeakCount></stageParams>
  <featureParams>
    <maxCatCount>256</maxCatCount>
    <featSize>1</featSize></featureParams>
  <stageNum>20</stageNum>
  <stages>
    <!-- stage 0 -->
    <_>
      <maxWeakCount>2</maxWeakCount>
      <stageThreshold>-1.7729382216930389e-01</stageThreshold>
      <weakClassifiers>
        <_>
          <internalNodes>
            0 -1 25 671286739 960581657 285261843 -2058780402 -503308135
            -2012704750 1342318602 -559156069</internalNodes>
          <leafValues>
            -9.7916668653488159e-01 8.1481480598449707e-01</leafValues></_>
        <_>
          <internalNodes>
            0 -1 2 -778840805 -788332476 1342377985 1392739585
            -503150069 -1476390400 8438175 2139837523</internalNodes>
          <leafValues>
            -9.8023188114166260e-01 8.0187284946441650e-01</leafValues></_></weakClassifiers></_>
    <!-- stage 1 -->
    <_>
      <maxWeakCount>2</maxWeakCount>
      <stageThreshold>-9.5278836786746979e-02</stageThreshold>
      <weakClassifiers>
        <_>
          <internalNodes>
            0 -1 9 -686564865 -452738943 -1845395447 -647917283
            -2086633190 -268402672 -402562837 -1279179516</internalNodes>
          <leafValues>
            -9.4949495792388916e-01 8.6274510622024536e-01</leafValues></_>
        <_>
          <internalNodes>
            0 -1 5 -742269345 -1862250351 -939491319 1476509698
            -1333745629 -1878980599 -1072496606 -618962334</internalNodes>
          <leafValues>
            -9.1670554876327515e-01 8.5421609878540039e-01</leafValues></_></weakClassifiers></_>
    <!-- stage 2 -->
    <_>
      <maxWeakCount>2</maxWeakCount>
      <stageThreshold>-1.9179582595825195e-01</stageThreshold>
      <weakClassifiers>
        <_>
          <internalNodes>
            0 -1 4 -707023885 -1073262582 1627717907 -175945519
            -452427621 -1744592893 -2147434359 -297287423</internalNodes>
          <leafValues>
            -9.5833331346511841e-01 7.7777779102325439e-01</leafValues></_>
        <_>
          <internalNodes>
            0 -1 13 322523281 -653131710 -1828700159 1409978631
            1627916425 -771186686 -930986325 -357855077</internalNodes>
          <leafValues>
            -9.5092499256134033e-01 7.6653748750686646e-01</leafValues></_></weakClassifiers></_>
    <!-- stage 3 -->
    <_>
      <maxWeakCount>2</maxWeakCount>
      <stageThreshold>-1.5839999914169312e-01</stageThreshold>
      <weakClassifiers>
        <_>
          <internalNodes>
            0 -1 28 -1818890017 794923012 -1736409013 -2097041392
            -805076823 -1191149056 268437641 -821523494</internalNodes>
          <leafValues>
            -9.1752576828002930e-01 7.3584908246994019e-01</leafValues></_>
        <_>
          <internalNodes>
            0 -1 0 -508862753 1094795271 -2113925083 -981460923
            -1608351045 -1878523895 1244387591 -608970560</internalNodes>
          <leafValues>
            -8.8647937774658203e-01 7.5912576913833618e-01</leafValues></_></weakClassifiers></_>
    <!-- stage 4 -->
    <_>
      <maxWeakCount>2</maxWeakCount>
      <stageThreshold>-2.0157077908515930e-01</stageThreshold>
      <weakClassifiers>
        <_>
          <internalNodes>
            0 -1 17 -577768101 880934931 -939323367 -2113335291
            -1870587705 503906324 570472587 -92216939</internalNodes>
          <leafValues>
            -9.2592591047286987e-01 6.7567569017410278e-01</leafValues></_>
        <_>
          <internalNodes>
            0 -1 26 -1734913761 -1991097707 1342181399 -2061287415
            -2130539889 -1702324096 625112 -91455061</internalNodes>
          <leafValues>
            -8.7724643945693970e-01 8.0453157424926758e-01</leafValues></_></weakClassifiers></_>
    <!-- stage 5 -->
    <_>
      <maxWeakCount>2</maxWeakCount>
      <stageThreshold>-3.0159017443656921e-01</stageThreshold>
      <weakClassifiers>
        <_>
          <internalNodes>
            0 -1 24 57013723 286753097 -2147331963 903681237 -1778282715
            -1014480895 402702987 -374111864</internalNodes>
          <leafValues>
            -9.5604395866394043e-01 6.2711864709854126e-01</leafValues></_>
        <_>
          <internalNodes>
            0 -1 20 -771452659 297836552 -2147286507 -582264701
            555799227 771883393 201360031 -927153429</internalNodes>
          <leafValues>
            -8.9647442102432251e-01 6.5445381402969360e-01</leafValues></_></weakClassifiers></_>
    <!-- stage 6 -->
    <_>
      <maxWeakCount>2</maxWeakCount>
      <stageThreshold>-1.3053558766841888e-02</stageThreshold>
      <weakClassifiers>
        <_>
          <internalNodes>
            0 -1 19 822155743 1342168767 -18 1879015423 -922451074
            419430401 272662537 -23558143</internalNodes>
          <leafValues>
            -7.8181821107864380e-01 8.9999997615814209e-01</leafValues></_>
        <_>
          <internalNodes>
            0 -1 38 -1055735805 -1542914048 -1073741820 -1878949887
            -2013200376 67109120 -2147483131 299360667</internalNodes>
          <leafValues>
            -9.1305357217788696e-01 7.7467221021652222e-01</leafValues></_></weakClassifiers></_>
    <!-- stage 7 -->
    <_>
      <maxWeakCount>2</maxWeakCount>
      <stageThreshold>-1.5078757703304291e-01</stageThreshold>
      <weakClassifiers>
        <_>
          <internalNodes>
            0 -1 27 -772746401 -771731455 -788527103 -1056935927
            -1878982461 -402620288 1086884226 -1246377833</internalNodes>
          <leafValues>
            -8.6000001430511475e-01 7.2000002861022949e-01</leafValues></_>
        <_>
          <internalNodes>
            0 -1 33 441209143 -1887369040 17318157 -217378659
            -2113888126 -1987051392 -2011133304 -1164311157</internalNodes>
          <leafValues>
            -8.4998899698257446e-01 7.0921242237091064e-01</leafValues></_></weakClassifiers></_>
    <!-- stage 8 -->
    <_>
      <maxWeakCount>2</maxWeakCount>
      <stageThreshold>3.4828518982976675e-03</stageThreshold>
      <weakClassifiers>
        <_>
          <internalNodes>
            0 -1 30 1075065153 1376780289 65668 1359020032 128
            -1073610752 17465353 -1593835499</internalNodes>
          <leafValues>
            -9.0099012851715088e-01 8.3673471212387085e-01</leafValues></_>
        <_>
          <internalNodes>
            0 -1 16 -806617354 -1114130 -293634135 2138038263 -32770
            -2049 -402786322 1248296673</internalNodes>
          <leafValues>
            -8.3325183391571045e-01 9.5660412311553955e-01</leafValues></_></weakClassifiers></_>
    <!-- stage 9 -->
    <_>
      <maxWeakCount>2</maxWeakCount>
      <stageThreshold>-9.9717184901237488e-02</stageThreshold>
      <weakClassifiers>
        <_>
          <internalNodes>
            0 -1 11 84492737 1351942147 1 33656833 -1610579837
            1208057857 537428115 -6303163</internalNodes>
          <leafValues>
            -8.6341464519500732e-01 8.1052631139755249e-01</leafValues></_>
        <_>
          <internalNodes>
            0 -1 36 -1575810470 -720289792 16842783 -2063527679
            -763199360 268435458 -2139043701 -662535159</internalNodes>
          <leafValues>
            -8.9029490947723389e-01 7.6369744539260864e-01</leafValues></_></weakClassifiers></_>
    <!-- stage 10 -->
    <_>
      <maxWeakCount>2</maxWeakCount>
      <stageThreshold>-9.8507590591907501e-02</stageThreshold>
      <weakClassifiers>
        <_>
          <internalNodes>
            0 -1 34 -2080255853 17899649 -1065304064 1161822273
            -750780286 -2139062270 -2004352365 -851213944</internalNodes>
          <leafValues>
            -8.2775121927261353e-01 8.0219781398773193e-01</leafValues></_>
        <_>
          <internalNodes>
            0 -1 31 1342325201 -1872732144 285218833 -2113896437
            402690074 -2012741629 -511606750 -527813733</internalNodes>
          <leafValues>
            -8.8971132040023804e-01 7.2924363613128662e-01</leafValues></_></weakClassifiers></_>
    <!-- stage 11 -->
    <_>
      <maxWeakCount>2</maxWeakCount>
      <stageThreshold>-2.9756184667348862e-02</stageThreshold>
      <weakClassifiers>
        <_>
          <internalNodes>
            0 -1 7 -804486981 1342178305 16777485 16809984 -2013249526
            -1073741824 -1879046144 -771751928</internalNodes>
          <leafValues>
            -8.5507243871688843e-01 8.2795697450637817e-01</leafValues></_>
        <_>
          <internalNodes>
            0 -1 10 805310553 4 1350583296 1074339845 2129952
            -2130706431 -2147221243 -1383953216</internalNodes>
          <leafValues>
            -8.5771316289901733e-01 9.1239899396896362e-01</leafValues></_></weakClassifiers></_>
    <!-- stage 12 -->
    <_>
      <maxWeakCount>2</maxWeakCount>
      <stageThreshold>2.5334633886814117e-02</stageThreshold>
      <weakClassifiers>
        <_>
          <internalNodes>
            0 -1 3 -1853750065 33554442 132 8388608 336004 -2147483648
            134234243 -1047869182</internalNodes>
          <leafValues>
            -8.6538463830947876e-01 8.6956518888473511e-01</leafValues></_>
        <_>
          <internalNodes>
            0 -1 37 -267157295 285229125 3 1342181377 1216350345 0
            -1073741688 1611235331</internalNodes>
          <leafValues>
            -8.4423059225082397e-01 9.4657778739929199e-01</leafValues></_></weakClassifiers></_>
    <!-- stage 13 -->
    <_>
      <maxWeakCount>2</maxWeakCount>
      <stageThreshold>6.0030790045857430e-03</stageThreshold>
      <weakClassifiers>
        <_>
          <internalNodes>
            0 -1 22 -1 -268435465 -1 -201850881 -1572993 -32769 -1
            -1586956851</internalNodes>
          <leafValues>
            -8.8679248094558716e-01 1.</leafValues></_>
        <_>
          <internalNodes>
            0 -1 23 16798874 285294601 -2147483647 872415232 -2147434360
            -1610448896 0 -511112702</internalNodes>
          <leafValues>
            -9.1964787244796753e-01 8.9279550313949585e-01</leafValues></_></weakClassifiers></_>
    <!-- stage 14 -->
    <_>
      <maxWeakCount>2</maxWeakCount>
      <stageThreshold>3.4558650106191635e-02</stageThreshold>
      <weakClassifiers>
        <_>
          <internalNodes>
            0 -1 6 1346593417 1073811456 536879121 16385 134483970
            1073742336 -2146954997 -1744731648</internalNodes>
          <leafValues>
            -8.3486241102218628e-01 1.</leafValues></_>
        <_>
          <internalNodes>
            0 -1 29 -1606336367 285278208 268470275 134217744
            -1610608638 134217752 134217745 -670564326</internalNodes>
          <leafValues>
            -9.2239236831665039e-01 8.6942106485366821e-01</leafValues></_></weakClassifiers></_>
    <!-- stage 15 -->
    <_>
      <maxWeakCount>2</maxWeakCount>
      <stageThreshold>5.8480247855186462e-02</stageThreshold>
      <weakClassifiers>
        <_>
          <internalNodes>
            0 -1 39 -1862167869 -2147418048 0 33554433 -2147475328 0
            -2147450872 -788281339</internalNodes>
          <leafValues>
            -8.5185188055038452e-01 1.</leafValues></_>
        <_>
          <internalNodes>
            0 -1 21 1082163413 1073741889 17 -805240832 268535970 0
            82050 721031</internalNodes>
          <leafValues>
            -8.9021158218383789e-01 9.1033208370208740e-01</leafValues></_></weakClassifiers></_>
    <!-- stage 16 -->
    <_>
      <maxWeakCount>2</maxWeakCount>
      <stageThreshold>-1.8878998234868050e-02</stageThreshold>
      <weakClassifiers>
        <_>
          <internalNodes>
            0 -1 32 -1609760575 4472897 1090536449 285212672 33718293
            196608 33693696 -754823168</internalNodes>
          <leafValues>
            -9.6938776969909668e-01 8.6538463830947876e-01</leafValues></_>
        <_>
          <internalNodes>
            0 -1 12 -788512437 1342193665 -2147475456 -1879048192
            16810498 8454144 65665 -475983871</internalNodes>
          <leafValues>
            -8.8426363468170166e-01 9.6553432941436768e-01</leafValues></_></weakClassifiers></_>
    <!-- stage 17 -->
    <_>
      <maxWeakCount>2</maxWeakCount>
      <stageThreshold>-1.3422669470310211e-01</stageThreshold>
      <weakClassifiers>
        <_>
          <internalNodes>
            0 -1 15 335550482 285212688 1073807377 84475912 134225928
            673202176 33849377 -109049728</internalNodes>
          <leafValues>
            -9.2893403768539429e-01 8.0582523345947266e-01</leafValues></_>
        <_>
          <internalNodes>
            0 -1 8 82270 268435456 2097155 67240064 90185 -134217726
            -2113928574 -1836425208</internalNodes>
          <leafValues>
            -9.1547542810440063e-01 7.9470729827880859e-01</leafValues></_></weakClassifiers></_>
    <!-- stage 18 -->
    <_>
      <maxWeakCount>2</maxWeakCount>
      <stageThreshold>-1.1324214190244675e-01</stageThreshold>
      <weakClassifiers>
        <_>
          <internalNodes>
            0 -1 35 268452177 34865408 33554563 -788461056 536871297
            545259520 184549384 98456</internalNodes>
          <leafValues>
            -8.8461536169052124e-01 9.1304349899291992e-01</leafValues></_>
        <_>
          <internalNodes>
            0 -1 1 272728403 -1878458368 32961 -805273598 262146
            16793604 688386 33636356</internalNodes>
          <leafValues>
            -9.9033409357070923e-01 7.7137321233749390e-01</leafValues></_></weakClassifiers></_>
    <!-- stage 19 -->
    <_>
      <maxWeakCount>2</maxWeakCount>
      <stageThreshold>4.6322721987962723e-02</stageThreshold>
      <weakClassifiers>
        <_>
          <internalNodes>
            0 -1 18 -1073561527 1895956496 1 65665 82056 -2147450880
            -2147483517 318898177</internalNodes>
          <leafValues>
            -8.5185188055038452e-01 1.</leafValues></_>
        <_>
          <internalNodes>
            0 -1 14 536891648 1393065992 17826114 -2130607869
            -2013233085 8913152 266504 -1602224128</internalNodes>
          <leafValues>
            -8.8967132568359375e-01 8.9817458391189575e-01</leafValues></_></weakClassifiers></_></stages>
  <features>
    <_>
      <rect>
        0 0 4 5</rect></_>
    <_>
      <rect>
        0 0 4 8</rect></_>
    <_>
      <rect>
        0 0 5 8</rect></_>
    <_>
      <rect>
        0 1 4 6</rect></_>
    <_>
      <rect>
        0 1 6 5</rect></_>
    <_>
      <rect>
        0 4 3 7</rect></_>
    <_>
      <rect>
        0 11 3 4</rect></_>
    <_>
      <rect>
        0 12 3 3</rect></_>
    <_>
      <rect>
        0 13 4 4</rect></_>
    <_>
      <rect>
        1 1 7 5</rect></_>
    <_>
      <rect>
        1 2 5 3</rect></_>
    <_>
      <rect>
        1 3 3 5</rect></_>
    <_>
      <rect>
        1 6 2 5</rect></_>
    <_>
      <rect>
        2 13 5 4</rect></_>
    <_>
      <rect>
        4 4 5 2</rect></_>
    <_>
      <rect>
        4 16 5 3</rect></_>
    <_>
      <rect>
        5 0 2 1</rect></_>
    <_>
      <rect>
        5 3 4 4</rect></_>
    <_>
      <rect>
        6 1 1 1</rect></_>
    <_>
      <rect>
        6 18 2 1</rect></_>
    <_>
      <rect>
        7 0 6 5</rect></_>
    <_>
      <rect>
        8 0 1 1</rect></_>
    <_>
      <rect>
        8 4 4 3</rect></_>
    <_>
      <rect>
        8 16 2 2</rect></_>
    <_>
      <rect>
        9 10 5 5</rect></_>
    <_>
      <rect>
        9 12 4 4</rect></_>
    <_>
      <rect>
        9 14 4 3</rect></_>
    <_>
      <rect>
        10 1 5 8</rect></_>
    <_>
      <rect>
        10 12 5 4</rect></_>
    <_>
      <rect>
        10 16 4 3</rect></_>
    <_>
      <rect>
        11 5 3 2</rect></_>
    <_>
      <rect>
        12 4 4 3</rect></_>
    <_>
      <rect>
        12 10 4 5</rect></_>
    <_>
      <rect>
        13 19 2 1</rect></_>
    <_>
      <rect>
        14 14 3 2</rect></_>
    <_>
      <rect>
        15 12 2 2</rect></_>
    <_>
      <rect>
        16 2 3 3</rect></_>
    <_>
      <rect>
        17 1 2 2</rect></_>
    <_>
      <rect>
        19 7 2 5</rect></_>
    <_>
      <rect>
        19 9 2 5</rect></_></features></cascade>
</opencv_storage>
